<?xml version="1.0"?>
<opencv_storage>
<stage9>
  <maxWeakCount>7</maxWeakCount>
  <stageThreshold>-9.1755795478820801e-01</stageThreshold>
  <weakClassifiers>
    <_>
      <internalNodes>
        0 -1 757428 -1120857064 391446545 -1857863333 1042416204
        -1207939016 -1576957258 -2012817280 -1961190934</internalNodes>
      <leafValues>
        -5.7575756311416626e-01 5.5251920223236084e-01</leafValues></_>
    <_>
      <internalNodes>
        0 -1 817683 -1979530406 -341422072 -2146864493 -753970991
        -1436363845 -242712567 -1056771653 -820998088</internalNodes>
      <leafValues>
        -5.5924493074417114e-01 4.9986603856086731e-01</leafValues></_>
    <_>
      <internalNodes>
        0 -1 619421 -787090653 -646700870 -804732260 -15826924
        -1198935821 -1340366688 -1050481995 1534321266</internalNodes>
      <leafValues>
        -5.2732473611831665e-01 5.4817610979080200e-01</leafValues></_>
    <_>
      <internalNodes>
        0 -1 662615 873977912 -1072594543 1125122425 -1055564776
        -1718988150 -1987985392 144710043 -805305513</internalNodes>
      <leafValues>
        -5.7251352071762085e-01 5.0231581926345825e-01</leafValues></_>
    <_>
      <internalNodes>
        0 -1 665537 -536506223 -678311855 -1728003773 -933854116
        -2126323319 -2013036414 -334853393 -905391972</internalNodes>
      <leafValues>
        -5.8960545063018799e-01 4.6872025728225708e-01</leafValues></_>
    <_>
      <internalNodes>
        0 -1 680559 -1289651981 -714534700 268311 1417300807 -1475843412
        -1160084605 -1469964080 -644869184</internalNodes>
      <leafValues>
        -5.6562942266464233e-01 5.4083627462387085e-01</leafValues></_>
    <_>
      <internalNodes>
        0 -1 805332 -971815137 -2134556653 822116563 2017854227
        -918343627 1619217920 1879103920 1958514844</internalNodes>
      <leafValues>
        -7.7319574356079102e-01 4.4530299305915833e-01</leafValues></_></weakClassifiers></stage9>
</opencv_storage>
