<?xml version="1.0"?>
<opencv_storage>
<stage7>
  <maxWeakCount>7</maxWeakCount>
  <stageThreshold>-8.4205847978591919e-01</stageThreshold>
  <weakClassifiers>
    <_>
      <internalNodes>
        0 -1 793158 1159794037 -990609409 -1090462465 -16891906
        -1886339660 -134217729 -1078371021 -13463502</internalNodes>
      <leafValues>
        -4.9019607901573181e-01 5.9633028507232666e-01</leafValues></_>
    <_>
      <internalNodes>
        0 -1 405479 1325978491 -753790272 1510252629 2038466606
        415335624 -369033088 1619599815 -21493162</internalNodes>
      <leafValues>
        -5.1031380891799927e-01 5.3579455614089966e-01</leafValues></_>
    <_>
      <internalNodes>
        0 -1 665864 1988346555 -184392429 -1711104719 -795338736
        -592934514 -246785022 546031413 1480098180</internalNodes>
      <leafValues>
        -6.2897241115570068e-01 4.4773718714714050e-01</leafValues></_>
    <_>
      <internalNodes>
        0 -1 1011033 -1662531409 1680248228 251637756 75233472
        -1375738967 -2114032390 -1258314307 687861467</internalNodes>
      <leafValues>
        -5.0683897733688354e-01 5.7069849967956543e-01</leafValues></_>
    <_>
      <internalNodes>
        0 -1 802969 -1709550474 -217972317 503418993 -775761451
        -1441774966 -654146173 92917985 -7847404</internalNodes>
      <leafValues>
        -6.0139268636703491e-01 4.9997228384017944e-01</leafValues></_>
    <_>
      <internalNodes>
        0 -1 719511 -812103664 1540505896 98355 35478017 -381011250
        -918022142 139645579 -821116691</internalNodes>
      <leafValues>
        -6.3377434015274048e-01 4.7693547606468201e-01</leafValues></_>
    <_>
      <internalNodes>
        0 -1 13715 -2061767942 -1760964550 -67043248 1209423248
        1342242816 -1199505270 204800 -749512393</internalNodes>
      <leafValues>
        -7.1134364604949951e-01 4.3542423844337463e-01</leafValues></_></weakClassifiers></stage7>
</opencv_storage>
