<?xml version="1.0"?>
<opencv_storage>
<stage14>
  <maxWeakCount>7</maxWeakCount>
  <stageThreshold>-7.3405450582504272e-01</stageThreshold>
  <weakClassifiers>
    <_>
      <internalNodes>
        0 -1 805332 589602878 1750139137 -1844162103 -156708212 8409937
        58729091 428125312 1424769228</internalNodes>
      <leafValues>
        -7.4377226829528809e-01 4.6171343326568604e-01</leafValues></_>
    <_>
      <internalNodes>
        0 -1 857250 -1783408707 -7898244 -16809987 -8749060 -1082196491
        -268566529 -1073981475 -69706243</internalNodes>
      <leafValues>
        -4.4334748387336731e-01 5.3656941652297974e-01</leafValues></_>
    <_>
      <internalNodes>
        0 -1 635110 389116979 -579477903 -65545 -661082124 -869878033
        -1775251499 -1904280004 -284431277</internalNodes>
      <leafValues>
        -4.2283120751380920e-01 6.1285257339477539e-01</leafValues></_>
    <_>
      <internalNodes>
        0 -1 718973 1947275473 -791045923 -955713122 1436041409
        1477537970 1216585880 805572699 -1692693780</internalNodes>
      <leafValues>
        -5.2247166633605957e-01 4.8790109157562256e-01</leafValues></_>
    <_>
      <internalNodes>
        0 -1 366381 -1583755017 1170391339 117604617 -2130148376
        -1868441400 -1617846259 841254060 994185478</internalNodes>
      <leafValues>
        -7.0551180839538574e-01 3.8399782776832581e-01</leafValues></_>
    <_>
      <internalNodes>
        0 -1 1046768 -148380947 373393410 1073840448 -1946036182
        -1042087360 -1195309021 -1878267903 -1610096597</internalNodes>
      <leafValues>
        -5.2351254224777222e-01 5.3552216291427612e-01</leafValues></_>
    <_>
      <internalNodes>
        0 -1 850902 -1077246648 -569212607 -1870594037 -519387708
        -1342011207 -2004647716 -1268005991 2026128561</internalNodes>
      <leafValues>
        -6.4751976728439331e-01 4.2648372054100037e-01</leafValues></_></weakClassifiers></stage14>
</opencv_storage>
