<?xml version="1.0"?>
<opencv_storage>
<stage19>
  <maxWeakCount>8</maxWeakCount>
  <stageThreshold>-7.8804576396942139e-01</stageThreshold>
  <weakClassifiers>
    <_>
      <internalNodes>
        0 -1 700234 836261104 -251522814 822108267 1359086369
        -2108967993 -502615838 587235736 529404120</internalNodes>
      <leafValues>
        -5.9436619281768799e-01 4.9076303839683533e-01</leafValues></_>
    <_>
      <internalNodes>
        0 -1 605272 -1866340918 -1288555184 1242182104 1442513393
        1257933831 -91160315 -1458589616 -592465720</internalNodes>
      <leafValues>
        -5.9553778171539307e-01 3.9526015520095825e-01</leafValues></_>
    <_>
      <internalNodes>
        0 -1 756655 -863034447 1711689794 336167235 67276810 1128272289
        855642120 -1333702590 -212557558</internalNodes>
      <leafValues>
        -5.9208071231842041e-01 4.2004567384719849e-01</leafValues></_>
    <_>
      <internalNodes>
        0 -1 666589 -1771023747 -1182956339 -1140751969 1920532847
        -1157000311 -485900023 -2004860850 1344934605</internalNodes>
      <leafValues>
        -5.4417771100997925e-01 4.3608698248863220e-01</leafValues></_>
    <_>
      <internalNodes>
        0 -1 394600 -574192934 -1022884452 270549188 436207616
        -972215864 -917560826 -1728413308 -407338080</internalNodes>
      <leafValues>
        -7.2676461935043335e-01 3.1020960211753845e-01</leafValues></_>
    <_>
      <internalNodes>
        0 -1 542167 1901605882 -751205093 25233433 1426662212 -300678517
        1992099891 813822072 -625368951</internalNodes>
      <leafValues>
        -4.9036732316017151e-01 5.0533163547515869e-01</leafValues></_>
    <_>
      <internalNodes>
        0 -1 620325 1426741361 1359233117 -200212221 -1803382271
        34084881 1749617154 2081050695 1037570554</internalNodes>
      <leafValues>
        -6.5877425670623779e-01 3.7431517243385315e-01</leafValues></_>
    <_>
      <internalNodes>
        0 -1 648151 298412408 -1591713661 1049123 -1555996639 270590090
        -1307308029 -1073536914 324255939</internalNodes>
      <leafValues>
        -6.1104142665863037e-01 4.6967861056327820e-01</leafValues></_></weakClassifiers></stage19>
</opencv_storage>
