<?xml version="1.0"?>
<opencv_storage>
<stage18>
  <maxWeakCount>9</maxWeakCount>
  <stageThreshold>-7.1757441759109497e-01</stageThreshold>
  <weakClassifiers>
    <_>
      <internalNodes>
        0 -1 770133 349183196 864240905 12648589 269765194 -1836043329
        -2147311487 881330860 465176968</internalNodes>
      <leafValues>
        -7.3381292819976807e-01 4.5688351988792419e-01</leafValues></_>
    <_>
      <internalNodes>
        0 -1 704847 -1989027640 -1749528211 1161926669 1365377174
        -2100330394 -1442836465 -267032008 -4486926</internalNodes>
      <leafValues>
        -5.0019466876983643e-01 4.6440452337265015e-01</leafValues></_>
    <_>
      <internalNodes>
        0 -1 968980 -176951525 1903164991 570373805 1948495403
        -960561916 337411955 1681232918 -1059455713</internalNodes>
      <leafValues>
        -3.6451232433319092e-01 6.4471077919006348e-01</leafValues></_>
    <_>
      <internalNodes>
        0 -1 1066940 -202524013 10931951 -805306882 -1574060547
        -1344412133 -1392574468 -2030067982 -1058540577</internalNodes>
      <leafValues>
        -3.8681477308273315e-01 6.6193461418151855e-01</leafValues></_>
    <_>
      <internalNodes>
        0 -1 678449 1737748951 2015887552 68765 -2130082407 1644838931
        -1609791261 168724124 449482931</internalNodes>
      <leafValues>
        -4.9716329574584961e-01 5.0977897644042969e-01</leafValues></_>
    <_>
      <internalNodes>
        0 -1 806189 1568672771 -896581184 855642615 -1835578287
        -1442669454 -1456936703 973628051 2142931645</internalNodes>
      <leafValues>
        -5.7130736112594604e-01 4.5316487550735474e-01</leafValues></_>
    <_>
      <internalNodes>
        0 -1 767024 -1996271139 1704407289 402719065 -586806719
        102810044 -794263279 807045518 -1698822020</internalNodes>
      <leafValues>
        -5.4977262020111084e-01 4.8412501811981201e-01</leafValues></_>
    <_>
      <internalNodes>
        0 -1 869664 -1874622638 815742985 -1861975807 1409302530
        -1810133542 -1473503102 -2137341259 145598687</internalNodes>
      <leafValues>
        -6.0536628961563110e-01 4.4635316729545593e-01</leafValues></_>
    <_>
      <internalNodes>
        0 -1 689657 -1581051432 1430454409 402718864 1711636743
        -509333466 1358987273 288545711 1827136997</internalNodes>
      <leafValues>
        -5.6674700975418091e-01 4.8593077063560486e-01</leafValues></_></weakClassifiers></stage18>
</opencv_storage>
