<?xml version="1.0"?>
<opencv_storage>
<stage16>
  <maxWeakCount>9</maxWeakCount>
  <stageThreshold>-9.8013144731521606e-01</stageThreshold>
  <weakClassifiers>
    <_>
      <internalNodes>
        0 -1 690404 26421736 -2028846162 536924947 1111901962
        -1320641750 -2130685941 29395131 238168294</internalNodes>
      <leafValues>
        -6.1142855882644653e-01 4.9120000004768372e-01</leafValues></_>
    <_>
      <internalNodes>
        0 -1 776324 -780087143 385966293 135340830 -549170407 -526089846
        -1951326032 1814349886 2030096977</internalNodes>
      <leafValues>
        -5.4318213462829590e-01 4.3386560678482056e-01</leafValues></_>
    <_>
      <internalNodes>
        0 -1 784115 -105690017 -792117232 -385318885 -451919617
        -1937731062 -502757361 131244 705167560</internalNodes>
      <leafValues>
        -5.0153601169586182e-01 5.0559884309768677e-01</leafValues></_>
    <_>
      <internalNodes>
        0 -1 1002457 1352655360 1884160274 -2063433708 -1140600126
        -670971583 -1996191741 -1073680232 1551890531</internalNodes>
      <leafValues>
        -5.7255542278289795e-01 4.4464650750160217e-01</leafValues></_>
    <_>
      <internalNodes>
        0 -1 1024399 -481901478 -1163681404 268439553 1178783880
        -1744629752 1207992339 -1073440614 778471</internalNodes>
      <leafValues>
        -5.4241341352462769e-01 4.6327969431877136e-01</leafValues></_>
    <_>
      <internalNodes>
        0 -1 509204 -268379751 831545505 -2147418045 -69541743
        -1337470804 721444874 1007352303 1790952706</internalNodes>
      <leafValues>
        -6.0845506191253662e-01 4.3688878417015076e-01</leafValues></_>
    <_>
      <internalNodes>
        0 -1 758308 -289673629 -5414928 -1090619649 2147481077
        -1477126273 -16850988 -1900089345 -75735555</internalNodes>
      <leafValues>
        -5.1952725648880005e-01 5.7707583904266357e-01</leafValues></_>
    <_>
      <internalNodes>
        0 -1 742239 -1199351523 -620035837 -2109587439 -1503059829
        -1870486453 -1929179136 -1994888373 -994827784</internalNodes>
      <leafValues>
        -6.6201645135879517e-01 4.3335351347923279e-01</leafValues></_>
    <_>
      <internalNodes>
        0 -1 476368 1351718347 1936294225 1210123458 -1978595183
        -1878949646 -1300035438 -1711108596 725488059</internalNodes>
      <leafValues>
        -5.5117213726043701e-01 5.3460359573364258e-01</leafValues></_></weakClassifiers></stage16>
</opencv_storage>
