<?xml version="1.0"?>
<opencv_storage>
<stage11>
  <maxWeakCount>8</maxWeakCount>
  <stageThreshold>-2.5624901056289673e-01</stageThreshold>
  <weakClassifiers>
    <_>
      <internalNodes>
        0 -1 662385 852782320 -1239979376 36869 -648973791 -1736310628
        -1294073856 1124794926 412687699</internalNodes>
      <leafValues>
        -6.0533332824707031e-01 5.1183670759201050e-01</leafValues></_>
    <_>
      <internalNodes>
        0 -1 829650 -1293028424 9896199 453017937 574669151 -1064726099
        -937332605 -1515476261 147370379</internalNodes>
      <leafValues>
        -5.8767265081405640e-01 4.3360954523086548e-01</leafValues></_>
    <_>
      <internalNodes>
        0 -1 693717 1078641961 1394294815 -1072627307 -800947946
        17336597 -1038974837 428850065 -1128248924</internalNodes>
      <leafValues>
        -5.6807827949523926e-01 4.9698510766029358e-01</leafValues></_>
    <_>
      <internalNodes>
        0 -1 558847 -1726875909 -722949 -388038921 -303517967 -387087634
        -791388923 1449129597 -291508054</internalNodes>
      <leafValues>
        -4.8379001021385193e-01 5.8659851551055908e-01</leafValues></_>
    <_>
      <internalNodes>
        0 -1 816750 -1600071081 -452423467 403391573 -353720684
        1210484244 -397377535 -795819904 599445656</internalNodes>
      <leafValues>
        -6.9075244665145874e-01 3.9698535203933716e-01</leafValues></_>
    <_>
      <internalNodes>
        0 -1 177362 -486190344 -239796133 -2147479276 -754252797
        -2145285381 -2063073120 -266757477 -595217774</internalNodes>
      <leafValues>
        -5.6870561838150024e-01 5.2779084444046021e-01</leafValues></_>
    <_>
      <internalNodes>
        0 -1 1071374 -470819045 -2132001026 -603979788 -1943134472
        -302647836 133554095 -403181724 -994064553</internalNodes>
      <leafValues>
        -4.8167029023170471e-01 6.0681617259979248e-01</leafValues></_>
    <_>
      <internalNodes>
        0 -1 649402 -655174413 -785253896 -1130762 2004582361 -33563006
        -809792007 -1730357634 -1844605103</internalNodes>
      <leafValues>
        -5.2314984798431396e-01 5.7301944494247437e-01</leafValues></_></weakClassifiers></stage11>
</opencv_storage>
