<?xml version="1.0"?>
<opencv_storage>
<stage15>
  <maxWeakCount>7</maxWeakCount>
  <stageThreshold>-1.4395179748535156e+00</stageThreshold>
  <weakClassifiers>
    <_>
      <internalNodes>
        0 -1 756455 82890965 501009881 1073545215 498892282 -637747267
        -1077936195 -1617298436 -1111649060</internalNodes>
      <leafValues>
        -4.5762711763381958e-01 5.4609930515289307e-01</leafValues></_>
    <_>
      <internalNodes>
        0 -1 12286 -741125869 -636010157 -1877937575 1930637331
        1762272009 -662699894 46166217 1368485943</internalNodes>
      <leafValues>
        -4.6541464328765869e-01 4.9203193187713623e-01</leafValues></_>
    <_>
      <internalNodes>
        0 -1 794450 -184225115 -788327984 67160397 -147613674
        -2034056881 -1702852423 1762193425 -1121922859</internalNodes>
      <leafValues>
        -4.7853869199752808e-01 4.9609392881393433e-01</leafValues></_>
    <_>
      <internalNodes>
        0 -1 21349 1526998111 -1628516370 1064222521 2113794037
        1465787199 -1883891786 1163389179 -138513117</internalNodes>
      <leafValues>
        -4.5309862494468689e-01 5.5983263254165649e-01</leafValues></_>
    <_>
      <internalNodes>
        0 -1 422778 -16908291 -717039655 -16875535 -289808651 889191670
        -140902632 2126247389 -339110713</internalNodes>
      <leafValues>
        -4.5304441452026367e-01 5.9211641550064087e-01</leafValues></_>
    <_>
      <internalNodes>
        0 -1 303425 -770518790 -652832250 -738174448 521830664
        -2143256050 134225953 1159860517 -1743259475</internalNodes>
      <leafValues>
        -5.6615471839904785e-01 4.7693398594856262e-01</leafValues></_>
    <_>
      <internalNodes>
        0 -1 58709 -782826518 1364459790 814813191 -1737747823 453127103
        1890320547 1263733729 -1067572946</internalNodes>
      <leafValues>
        -6.2373179197311401e-01 4.2136487364768982e-01</leafValues></_></weakClassifiers></stage15>
</opencv_storage>
