<?xml version="1.0"?>
<opencv_storage>
<stage6>
  <maxWeakCount>6</maxWeakCount>
  <stageThreshold>-1.1461600065231323e+00</stageThreshold>
  <weakClassifiers>
    <_>
      <internalNodes>
        0 -1 805321 551446263 -1916530410 -268348135 -1057699365
        1363681283 -133967742 12691685 1957183536</internalNodes>
      <leafValues>
        -8.1818181276321411e-01 5.0464397668838501e-01</leafValues></_>
    <_>
      <internalNodes>
        0 -1 744521 -467828721 -436162097 -2011578349 -53734945
        -1978938852 -1474133997 -501644416 -26410653</internalNodes>
      <leafValues>
        -5.8205789327621460e-01 5.1321560144424438e-01</leafValues></_>
    <_>
      <internalNodes>
        0 -1 475340 -1023360613 -1018101504 4210965 1435180280
        1744872142 -1861744608 367534285 -90663753</internalNodes>
      <leafValues>
        -5.4683732986450195e-01 5.7402843236923218e-01</leafValues></_>
    <_>
      <internalNodes>
        0 -1 30077 -480857633 -720142015 117477575 -250560251 19055819
        -2013200351 106939 2063822867</internalNodes>
      <leafValues>
        -5.8937889337539673e-01 5.7854580879211426e-01</leafValues></_>
    <_>
      <internalNodes>
        0 -1 744944 1284632763 -668395288 -184614913 1574460866
        765513113 -1344143626 -1625333829 -1088725267</internalNodes>
      <leafValues>
        -4.5754128694534302e-01 7.1720755100250244e-01</leafValues></_>
    <_>
      <internalNodes>
        0 -1 603874 1998206449 -199949918 21201221 -116555711
        -1744795254 -746061822 1126863499 1571930535</internalNodes>
      <leafValues>
        -5.7026213407516479e-01 5.8766150474548340e-01</leafValues></_></weakClassifiers></stage6>
</opencv_storage>
