<?xml version="1.0"?>
<opencv_storage>
<stage13>
  <maxWeakCount>7</maxWeakCount>
  <stageThreshold>-7.8073894977569580e-01</stageThreshold>
  <weakClassifiers>
    <_>
      <internalNodes>
        0 -1 660662 -1294446250 1969778689 1162428451 1595294217
        -2139076454 -763230072 -2113216436 9457912</internalNodes>
      <leafValues>
        -7.8597784042358398e-01 4.6124905347824097e-01</leafValues></_>
    <_>
      <internalNodes>
        0 -1 620198 -1336881958 825254724 -1859108776 1502705090
        1351942383 -1147695991 1497276960 -1970299713</internalNodes>
      <leafValues>
        -5.9812283515930176e-01 4.0141534805297852e-01</leafValues></_>
    <_>
      <internalNodes>
        0 -1 779415 -1484711527 1234247692 -1316994605 1345995035
        -2110904230 -1098874366 -805222751 -22890296</internalNodes>
      <leafValues>
        -4.8715087771415710e-01 5.3034371137619019e-01</leafValues></_>
    <_>
      <internalNodes>
        0 -1 573490 1159462641 1108617605 146838587 -603193073
        1107992734 276987905 856294181 1936960540</internalNodes>
      <leafValues>
        -5.7066959142684937e-01 4.5170387625694275e-01</leafValues></_>
    <_>
      <internalNodes>
        0 -1 807280 -1222713859 -775434160 1124782111 -1042372349
        -1476091511 -645823872 -225402648 -1627367140</internalNodes>
      <leafValues>
        -5.4738986492156982e-01 4.9778687953948975e-01</leafValues></_>
    <_>
      <internalNodes>
        0 -1 9406 -270275345 -1077358672 1861550077 -1088225486
        1207726079 -1351196943 -822640769 -700098573</internalNodes>
      <leafValues>
        -5.0134199857711792e-01 5.7729220390319824e-01</leafValues></_>
    <_>
      <internalNodes>
        0 -1 805366 -113522021 -1695622931 -1477510145 -1175537942
        2113368731 2000123735 526302649 -145073955</internalNodes>
      <leafValues>
        -4.1079550981521606e-01 6.8800240755081177e-01</leafValues></_></weakClassifiers></stage13>
</opencv_storage>
