<?xml version="1.0"?>
<opencv_storage>
<stage1>
  <maxWeakCount>4</maxWeakCount>
  <stageThreshold>-1.4055849313735962e+00</stageThreshold>
  <weakClassifiers>
    <_>
      <internalNodes>
        0 -1 30726 -742198310 -78649130 -805269419 -548290543 -939461992
        -1425317748 -1929210913 522190885</internalNodes>
      <leafValues>
        -7.5946545600891113e-01 6.4378803968429565e-01</leafValues></_>
    <_>
      <internalNodes>
        0 -1 573769 1364317149 -113229568 419742005 -651640760 268476618
        -1853859680 -234301249 -73743168</internalNodes>
      <leafValues>
        -7.0002651214599609e-01 5.6577759981155396e-01</leafValues></_>
    <_>
      <internalNodes>
        0 -1 769581 336089561 -1826357055 -921157571 386536996
        -805257060 -930446712 -1534522373 530291883</internalNodes>
      <leafValues>
        -6.7798501253128052e-01 5.9178519248962402e-01</leafValues></_>
    <_>
      <internalNodes>
        0 -1 262458 -582884386 -754777851 -2147482731 -641351611
        1879233427 -1920745336 -1836941169 277551321</internalNodes>
      <leafValues>
        -6.7136138677597046e-01 6.0754019021987915e-01</leafValues></_></weakClassifiers></stage1>
</opencv_storage>
