<?xml version="1.0"?>
<opencv_storage>
<stage4>
  <maxWeakCount>8</maxWeakCount>
  <stageThreshold>-1.1381510496139526e+00</stageThreshold>
  <weakClassifiers>
    <_>
      <internalNodes>
        0 -1 756847 1275856925 -1366813878 29459077 -96204534
        -2010808304 -1333549045 1220684081 -223194904</internalNodes>
      <leafValues>
        -6.6341465711593628e-01 5.6470590829849243e-01</leafValues></_>
    <_>
      <internalNodes>
        0 -1 606729 -1046937509 -628776832 536871325 -804126720
        -1467162238 -343621590 -2104884249 -632270604</internalNodes>
      <leafValues>
        -6.3918167352676392e-01 4.7537225484848022e-01</leafValues></_>
    <_>
      <internalNodes>
        0 -1 692046 -994847495 2095149073 -327683 1608277617 -1964266766
        -1612744113 -826221351 -10777911</internalNodes>
      <leafValues>
        -5.0415349006652832e-01 5.8470946550369263e-01</leafValues></_>
    <_>
      <internalNodes>
        0 -1 619885 1966077419 -23175430 1591705309 1374879612
        -319265650 1310382052 2125600254 2075590654</internalNodes>
      <leafValues>
        -4.8421096801757812e-01 6.1928629875183105e-01</leafValues></_>
    <_>
      <internalNodes>
        0 -1 109447 -178445113 352911635 1208025089 -615411398 68186159
        1040891939 1619301339 2069971251</internalNodes>
      <leafValues>
        -5.8358824253082275e-01 5.3691226243972778e-01</leafValues></_>
    <_>
      <internalNodes>
        0 -1 679520 -1371850123 -896663700 -285311247 1121943259
        -1892098055 -1610678306 2113762807 -27591203</internalNodes>
      <leafValues>
        -4.8692619800567627e-01 6.9105339050292969e-01</leafValues></_>
    <_>
      <internalNodes>
        0 -1 258419 2122614418 -670891950 1346420881 906317825
        -1071609669 -1154997888 404427039 -77407669</internalNodes>
      <leafValues>
        -5.4084634780883789e-01 6.0405737161636353e-01</leafValues></_>
    <_>
      <internalNodes>
        0 -1 32513 -682363170 -1622343549 268599569 -1740304183
        -1300115229 -485947391 1476952451 1365393653</internalNodes>
      <leafValues>
        -8.0373233556747437e-01 4.4718700647354126e-01</leafValues></_></weakClassifiers></stage4>
</opencv_storage>
