<?xml version="1.0"?>
<opencv_storage>
<stage17>
  <maxWeakCount>7</maxWeakCount>
  <stageThreshold>-9.6101963520050049e-01</stageThreshold>
  <weakClassifiers>
    <_>
      <internalNodes>
        0 -1 769568 579901464 573571138 67211406 -1464020938 -1071595503
        -1031569263 2068523984 153747569</internalNodes>
      <leafValues>
        -8.7234044075012207e-01 4.4322344660758972e-01</leafValues></_>
    <_>
      <internalNodes>
        0 -1 232814 671421659 1342310403 -847182460 1367441490 268485035
        436732352 1791669718 1912330446</internalNodes>
      <leafValues>
        -5.6100565195083618e-01 3.9702987670898438e-01</leafValues></_>
    <_>
      <internalNodes>
        0 -1 828709 550851135 -258653941 1434451977 -804384695
        -268280437 -1576927199 -643785784 -49774127</internalNodes>
      <leafValues>
        -5.0877141952514648e-01 4.8632186651229858e-01</leafValues></_>
    <_>
      <internalNodes>
        0 -1 707660 -1047929645 -780015459 50430235 479457426 -880699334
        -375696510 578866320 -1995813752</internalNodes>
      <leafValues>
        -4.6830803155899048e-01 5.2358913421630859e-01</leafValues></_>
    <_>
      <internalNodes>
        0 -1 992816 172459466 152089665 -2128510895 -1571700159
        -1675911031 -1600061440 -1304198996 4827399</internalNodes>
      <leafValues>
        -6.3592863082885742e-01 3.9210778474807739e-01</leafValues></_>
    <_>
      <internalNodes>
        0 -1 588397 401716539 -1977806718 16845121 -117308664
        -1660542556 -897023990 1749844747 2134169034</internalNodes>
      <leafValues>
        -5.7890939712524414e-01 4.3870547413825989e-01</leafValues></_>
    <_>
      <internalNodes>
        0 -1 542875 1293124183 -1769111255 344981551 -666744640 5003406
        -1814948648 -996499392 -1203586232</internalNodes>
      <leafValues>
        -6.6083198785781860e-01 4.1704794764518738e-01</leafValues></_></weakClassifiers></stage17>
</opencv_storage>
