<?xml version="1.0"?>
<opencv_storage>
<stage5>
  <maxWeakCount>7</maxWeakCount>
  <stageThreshold>-1.0585100650787354e+00</stageThreshold>
  <weakClassifiers>
    <_>
      <internalNodes>
        0 -1 267560 -16557826 -783613820 285456469 -829662459 144920763
        176316696 461408933 4801</internalNodes>
      <leafValues>
        -8.0858087539672852e-01 4.9730145931243896e-01</leafValues></_>
    <_>
      <internalNodes>
        0 -1 558380 -788467334 -741310328 1107411056 1601377560
        1090619596 -74743804 -527801711 -588256529</internalNodes>
      <leafValues>
        -5.7174515724182129e-01 5.2612900733947754e-01</leafValues></_>
    <_>
      <internalNodes>
        0 -1 759179 -710749955 -729677688 -612298722 -746532751
        -1736283262 -1174355964 -2126411606 1006657104</internalNodes>
      <leafValues>
        -6.0942405462265015e-01 5.0065243244171143e-01</leafValues></_>
    <_>
      <internalNodes>
        0 -1 744318 -469335033 -1800924402 1092796441 -258981613
        -1299152864 -1312653309 -1675652728 -132988521</internalNodes>
      <leafValues>
        -6.4121079444885254e-01 4.8543101549148560e-01</leafValues></_>
    <_>
      <internalNodes>
        0 -1 923743 -1425778315 -573173750 1980829765 1464160277
        -2142756472 -670906237 -1473719121 -1409281596</internalNodes>
      <leafValues>
        -6.3866972923278809e-01 4.8746627569198608e-01</leafValues></_>
    <_>
      <internalNodes>
        0 -1 705905 -1056845598 -112635824 167875221 1561870689
        -402123862 -662552510 1551895794 -74723637</internalNodes>
      <leafValues>
        -5.7102036476135254e-01 5.9639060497283936e-01</leafValues></_>
    <_>
      <internalNodes>
        0 -1 588711 -645030417 1345366513 234307 1902010524 -1744068453
        1711941632 -2001679459 1602881624</internalNodes>
      <leafValues>
        -6.5201002359390259e-01 5.0465345382690430e-01</leafValues></_></weakClassifiers></stage5>
</opencv_storage>
